{
  "simple_return_head_005930": [
    [
      0.003006,
      0.0108,
      0.029755,
      -0.002453,
      -0.010839
    ],
    [
      -0.021199,
      0.011551,
      0.018914,
      -0.027974,
      -0.006368
    ],
    [
      -0.012702,
      0.02636,
      0.010139,
      -0.004119,
      0.001539
    ],
    [
      -0.005443,
      0.020439,
      0.007597,
      0.019726,
      0.014296
    ],
    [
      0.016413,
      -0.00735,
      -0.006564,
      0.043213,
      0.020428
    ],
    [
      0.012259,
      -0.009314,
      -0.008494,
      -0.014178,
      -0.004483
    ],
    [
      0.02808,
      -0.009524,
      0.00081,
      0.030652,
      0.027527
    ],
    [
      0.030582,
      -0.020577,
      -0.010931,
      0.003128,
      -0.016643
    ],
    [
      -0.004386,
      -0.017683,
      -0.00455,
      0.006123,
      -0.003125
    ],
    [
      0.013054,
      -0.012572,
      0.022887,
      0.011461,
      0.023466
    ]
  ],
  "log_return_head_005930": [
    [
      0.003001,
      0.010742,
      0.029321,
      -0.002456,
      -0.010898
    ],
    [
      -0.021427,
      0.011485,
      0.018737,
      -0.028372,
      -0.006389
    ],
    [
      -0.012783,
      0.026019,
      0.010088,
      -0.004127,
      0.001537
    ],
    [
      -0.005458,
      0.020233,
      0.007568,
      0.019534,
      0.014194
    ],
    [
      0.01628,
      -0.007377,
      -0.006586,
      0.042306,
      0.020222
    ],
    [
      0.012185,
      -0.009358,
      -0.00853,
      -0.01428,
      -0.004493
    ],
    [
      0.027693,
      -0.009569,
      0.000809,
      0.030192,
      0.027155
    ],
    [
      0.030124,
      -0.020791,
      -0.010991,
      0.003123,
      -0.016783
    ],
    [
      -0.004396,
      -0.017841,
      -0.00456,
      0.006104,
      -0.00313
    ],
    [
      0.01297,
      -0.012651,
      0.022629,
      0.011396,
      0.023195
    ]
  ],
  "sma5_last_005930": [
    98981.16,
    86353.91,
    65326.44,
    78884.45,
    98024.67,
    85151.31,
    83530.55,
    88791.97,
    58190.65,
    96761.53
  ],
  "eval_total_mv_pnl": [
    [
      2650229.36,
      520229.36
    ],
    [
      2732469.78,
      602469.78
    ],
    [
      2101387.87,
      -28612.13
    ],
    [
      2542738.79,
      412738.79
    ],
    [
      3294970.59,
      1164970.59
    ],
    [
      3083429.12,
      953429.12
    ],
    [
      2426041.19,
      296041.19
    ],
    [
      2504638.43,
      374638.43
    ],
    [
      2252406.75,
      122406.75
    ],
    [
      2933792.25,
      803792.25
    ]
  ],
  "weights": [
    {
      "005930": 0.451401,
      "000660": 0.356216,
      "035420": 0.192383
    },
    {
      "005930": 0.380164,
      "000660": 0.375309,
      "035420": 0.244527
    },
    {
      "005930": 0.369114,
      "000660": 0.375811,
      "035420": 0.255075
    },
    {
      "005930": 0.376255,
      "000660": 0.416053,
      "035420": 0.207693
    },
    {
      "005930": 0.348625,
      "000660": 0.419705,
      "035420": 0.231671
    },
    {
      "005930": 0.339882,
      "000660": 0.48702,
      "035420": 0.173098
    },
    {
      "005930": 0.414699,
      "000660": 0.386625,
      "035420": 0.198676
    },
    {
      "005930": 0.429058,
      "000660": 0.383916,
      "035420": 0.187026
    },
    {
      "005930": 0.313176,
      "000660": 0.410154,
      "035420": 0.27667
    },
    {
      "005930": 0.387257,
      "000660": 0.365448,
      "035420": 0.247294
    }
  ],
  "sector_weights": [
    {
      "Semiconductor": 0.807617,
      "Internet": 0.192383
    },
    {
      "Semiconductor": 0.755473,
      "Internet": 0.244527
    },
    {
      "Semiconductor": 0.744925,
      "Internet": 0.255075
    },
    {
      "Semiconductor": 0.792308,
      "Internet": 0.207693
    },
    {
      "Semiconductor": 0.76833,
      "Internet": 0.231671
    },
    {
      "Semiconductor": 0.826902,
      "Internet": 0.173098
    },
    {
      "Semiconductor": 0.801324,
      "Internet": 0.198676
    },
    {
      "Semiconductor": 0.812974,
      "Internet": 0.187026
    },
    {
      "Semiconductor": 0.72333,
      "Internet": 0.27667
    },
    {
      "Semiconductor": 0.752705,
      "Internet": 0.247294
    }
  ],
  "port_ret_series_head3": [
    [
      0.001069,
      0.00761,
      0.017922
    ],
    [
      -0.008433,
      0.008209,
      -0.003945
    ],
    [
      -0.002203,
      0.006029,
      0.006672
    ],
    [
      0.007621,
      0.006045,
      0.002791
    ],
    [
      0.004833,
      -0.007841,
      -0.005297
    ],
    [
      0.005234,
      -0.000795,
      0.007623
    ],
    [
      0.018453,
      -0.010052,
      -0.000646
    ],
    [
      0.014291,
      -0.008279,
      -0.007008
    ],
    [
      -0.006045,
      -0.001595,
      -0.001972
    ],
    [
      0.005419,
      -0.002321,
      0.008404
    ]
  ],
  "port_cum_return": [
    0.19107,
    0.21206,
    -0.07037,
    0.127184,
    0.48203,
    0.395576,
    0.083512,
    0.136069,
    0.007261,
    0.3128
  ],
  "corr_005930_000660": [
    0.010449,
    -0.083612,
    0.028047,
    0.134762,
    0.024386,
    0.085207,
    -0.009511,
    -0.055364,
    0.026165,
    0.082547
  ],
  "cov_005930_000660": [
    2.2e-06,
    -1.955e-05,
    6.02e-06,
    2.977e-05,
    5.95e-06,
    1.86e-05,
    -2.06e-06,
    -1.266e-05,
    5.27e-06,
    1.802e-05
  ],
  "ann_stats": [
    [
      0.001508,
      0.008708,
      0.461876,
      0.138241,
      3.232581
    ],
    [
      0.001656,
      0.00884,
      0.517346,
      0.140335,
      3.57963
    ],
    [
      -0.000576,
      0.008673,
      -0.135075,
      0.137681,
      -1.090021
    ],
    [
      0.00105,
      0.009353,
      0.302712,
      0.148476,
      1.937765
    ],
    [
      0.003357,
      0.009615,
      1.326956,
      0.152633,
      8.595482
    ],
    [
      0.002848,
      0.009301,
      1.047449,
      0.147644,
      6.992841
    ],
    [
      0.000712,
      0.008791,
      0.196602,
      0.139545,
      1.301383
    ],
    [
      0.001109,
      0.0086,
      0.322287,
      0.136525,
      2.250777
    ],
    [
      9.5e-05,
      0.008367,
      0.024356,
      0.132825,
      0.070437
    ],
    [
      0.002333,
      0.009312,
      0.798838,
      0.147831,
      5.302266
    ]
  ],
  "beta_alpha_005930_vs_KOSPI": [
    [
      -0.057606,
      1.165921
    ],
    [
      0.00503,
      0.604144
    ],
    [
      -0.183971,
      -0.191792
    ],
    [
      0.00659,
      0.336083
    ],
    [
      0.139849,
      0.996675
    ],
    [
      0.270087,
      0.606124
    ],
    [
      0.02241,
      0.500393
    ],
    [
      -0.00041,
      0.741325
    ],
    [
      -0.085397,
      -0.310524
    ],
    [
      -0.053755,
      0.96832
    ]
  ],
  "mdd_005930": [
    -0.114311,
    -0.112872,
    -0.165777,
    -0.135903,
    -0.08982,
    -0.109541,
    -0.128212,
    -0.07785,
    -0.263732,
    -0.062774
  ],
  "var95_portfolio": [
    0.013435,
    0.011804,
    0.013776,
    0.014369,
    0.012423,
    0.012098,
    0.012647,
    0.011921,
    0.012516,
    0.013949
  ],
  "asset_cum_005930": [
    0.431554,
    0.23484,
    -0.077198,
    0.138894,
    0.378177,
    0.255649,
    0.204882,
    0.287475,
    -0.169769,
    0.368376
  ],
  "rolling_vol20_005930_last": [
    0.019594,
    0.012441,
    0.013822,
    0.010154,
    0.013338,
    0.012623,
    0.014034,
    0.014358,
    0.009905,
    0.01655
  ]
}